Language model created by QuickLM on Wed Feb 15 01:04:39 EST 2017
Copyright (c) 1996-2010 Carnegie Mellon University and Alexander I. Rudnicky

The model is in standard ARPA format, designed by Doug Paul while he was at MITRE.

The code that was used to produce this language model is available in Open Source.
Please visit http://www.speech.cs.cmu.edu/tools/ for more information

The (fixed) discount mass is 0.5. The backoffs are computed using the ratio method.
This model based on a corpus of 26 sentences and 34 words

\data\
ngram 1=34
ngram 2=62
ngram 3=57

\1-grams:
-1.0033 </s> -0.3010
-1.0033 <s> -0.2501
-2.4183 ALARM -0.2556
-1.5152 ARE -0.2772
-2.1173 BASKETBALL -0.2893
-2.4183 CLOCK -0.2556
-2.4183 CLOCK'S -0.2556
-2.1173 FOOTBALL -0.2943
-2.4183 GOOD -0.2994
-2.4183 HELLO -0.2556
-2.4183 HI -0.2556
-2.1173 HOCKEY -0.2893
-2.4183 HOW -0.2876
-2.4183 INVESTMENTS -0.2556
-1.8162 IS -0.2789
-2.4183 LOCAL -0.2977
-2.4183 MORNING -0.2556
-2.4183 MY -0.2994
-2.1173 NAME -0.2556
-2.1173 NEWS -0.2556
-2.1173 PRICES -0.2556
-1.9412 SCORE -0.2556
-1.8162 SCORES -0.2556
-2.4183 SCORES? -0.2556
-2.4183 SET -0.2824
-2.4183 SPORTS -0.2943
-2.1173 STOCK -0.2977
-2.4183 STOCKS -0.2556
-1.3769 THE -0.2701
-2.1173 TIME -0.2556
-2.1173 WEATHER -0.2556
-1.3769 WHAT -0.2807
-1.9412 WHAT'S -0.2789
-2.1173 YOUR -0.2977

\2-grams:
-1.7160 <s> BASKETBALL -0.1761
-1.7160 <s> CLOCK 0.0000
-1.7160 <s> CLOCK'S 0.0000
-1.7160 <s> FOOTBALL -0.1761
-1.7160 <s> GOOD 0.0000
-1.7160 <s> HELLO 0.0000
-1.7160 <s> HI 0.0000
-1.7160 <s> HOCKEY -0.1761
-1.7160 <s> HOW 0.0000
-1.7160 <s> LOCAL 0.0000
-1.7160 <s> SET 0.0000
-1.7160 <s> STOCKS 0.0000
-0.6746 <s> WHAT 0.0000
-1.2389 <s> WHAT'S 0.0000
-0.3010 ALARM </s> -0.3010
-1.2041 ARE MY 0.0000
-0.9031 ARE STOCK 0.0000
-0.5051 ARE THE -0.1891
-0.6021 BASKETBALL SCORE 0.0000
-0.6021 BASKETBALL SCORES 0.0000
-0.3010 CLOCK </s> -0.3010
-0.3010 CLOCK'S </s> -0.3010
-0.6021 FOOTBALL SCORE 0.0000
-0.6021 FOOTBALL SCORES? 0.0000
-0.3010 GOOD MORNING 0.0000
-0.3010 HELLO </s> -0.3010
-0.3010 HI </s> -0.3010
-0.6021 HOCKEY SCORE 0.0000
-0.6021 HOCKEY SCORES 0.0000
-0.3010 HOW ARE -0.2730
-0.3010 INVESTMENTS </s> -0.3010
-0.4260 IS THE -0.1891
-0.9031 IS YOUR 0.0000
-0.3010 LOCAL NEWS 0.0000
-0.3010 MORNING </s> -0.3010
-0.3010 MY INVESTMENTS 0.0000
-0.3010 NAME </s> -0.3010
-0.3010 NEWS </s> -0.3010
-0.3010 PRICES </s> -0.3010
-0.3010 SCORE </s> -0.3010
-0.3010 SCORES </s> -0.3010
-0.3010 SCORES? </s> -0.3010
-0.3010 SET THE -0.2808
-0.3010 SPORTS SCORES 0.0000
-0.3010 STOCK PRICES 0.0000
-0.3010 STOCKS </s> -0.3010
-1.3424 THE ALARM 0.0000
-1.3424 THE BASKETBALL -0.1761
-1.3424 THE FOOTBALL -0.1761
-1.3424 THE HOCKEY -0.1761
-1.3424 THE NEWS 0.0000
-1.3424 THE SCORES 0.0000
-1.3424 THE SPORTS 0.0000
-1.0414 THE TIME 0.0000
-1.0414 THE WEATHER 0.0000
-0.3010 TIME </s> -0.3010
-0.3010 WEATHER </s> -0.3010
-0.4973 WHAT ARE -0.0512
-0.7404 WHAT IS 0.0000
-0.4771 WHAT'S THE -0.2139
-0.7782 WHAT'S YOUR 0.0000
-0.3010 YOUR NAME 0.0000

\3-grams:
-0.3010 <s> BASKETBALL SCORE
-0.3010 <s> CLOCK </s>
-0.3010 <s> CLOCK'S </s>
-0.3010 <s> FOOTBALL SCORE
-0.3010 <s> GOOD MORNING
-0.3010 <s> HELLO </s>
-0.3010 <s> HI </s>
-0.3010 <s> HOCKEY SCORE
-0.3010 <s> HOW ARE
-0.3010 <s> LOCAL NEWS
-0.3010 <s> SET THE
-0.3010 <s> STOCKS </s>
-0.4973 <s> WHAT ARE
-0.7404 <s> WHAT IS
-0.4771 <s> WHAT'S THE
-0.7782 <s> WHAT'S YOUR
-0.3010 ARE MY INVESTMENTS
-0.3010 ARE STOCK PRICES
-1.0000 ARE THE BASKETBALL
-1.0000 ARE THE FOOTBALL
-1.0000 ARE THE HOCKEY
-1.0000 ARE THE SCORES
-1.0000 ARE THE SPORTS
-0.3010 BASKETBALL SCORE </s>
-0.3010 BASKETBALL SCORES </s>
-0.3010 FOOTBALL SCORE </s>
-0.3010 FOOTBALL SCORES? </s>
-0.3010 GOOD MORNING </s>
-0.3010 HOCKEY SCORE </s>
-0.3010 HOCKEY SCORES </s>
-0.3010 HOW ARE MY
-0.7782 IS THE NEWS
-0.7782 IS THE TIME
-0.7782 IS THE WEATHER
-0.3010 IS YOUR NAME
-0.3010 LOCAL NEWS </s>
-0.3010 MY INVESTMENTS </s>
-0.3010 SET THE ALARM
-0.3010 SPORTS SCORES </s>
-0.3010 STOCK PRICES </s>
-0.3010 THE ALARM </s>
-0.3010 THE BASKETBALL SCORES
-0.3010 THE FOOTBALL SCORES?
-0.3010 THE HOCKEY SCORES
-0.3010 THE NEWS </s>
-0.3010 THE SCORES </s>
-0.3010 THE SPORTS SCORES
-0.3010 THE TIME </s>
-0.3010 THE WEATHER </s>
-0.8451 WHAT ARE STOCK
-0.4472 WHAT ARE THE
-0.4260 WHAT IS THE
-0.9031 WHAT IS YOUR
-0.6021 WHAT'S THE TIME
-0.6021 WHAT'S THE WEATHER
-0.3010 WHAT'S YOUR NAME
-0.3010 YOUR NAME </s>

\end\
